digraph Tree {
node [shape=box, style="filled", color="black"] ;
0 [label="Gender <= 0.5\ngini = 0.4729\nsamples = 102876\nvalue = [39469, 63407]\nclass = White", fillcolor="#399de560"] ;
1 [label="JobType <= 0.5\ngini = 0.3652\nsamples = 21003\nvalue = [5049, 15954]\nclass = White", fillcolor="#399de5ae"] ;
0 -> 1 [labeldistance=2.5, labelangle=45, headlabel="True"] ;
2 [label="gini = 0.3423\nsamples = 12333\nvalue = [2703, 9630]\nclass = White", fillcolor="#399de5b7"] ;
1 -> 2 ;
3 [label="gini = 0.3947\nsamples = 8670\nvalue = [2346, 6324]\nclass = White", fillcolor="#399de5a0"] ;
1 -> 3 ;
4 [label="JobType <= 0.5\ngini = 0.4873\nsamples = 81873\nvalue = [34420, 47453]\nclass = White", fillcolor="#399de546"] ;
0 -> 4 [labeldistance=2.5, labelangle=-45, headlabel="False"] ;
5 [label="Gender <= 1.5\ngini = 0.4849\nsamples = 42872\nvalue = [17706, 25166]\nclass = White", fillcolor="#399de54c"] ;
4 -> 5 ;
6 [label="gini = 0.4763\nsamples = 10451\nvalue = [4089, 6362]\nclass = White", fillcolor="#399de55b"] ;
5 -> 6 ;
7 [label="gini = 0.4872\nsamples = 32421\nvalue = [13617, 18804]\nclass = White", fillcolor="#399de546"] ;
5 -> 7 ;
8 [label="Gender <= 1.5\ngini = 0.4898\nsamples = 39001\nvalue = [16714, 22287]\nclass = White", fillcolor="#399de540"] ;
4 -> 8 ;
9 [label="gini = 0.4989\nsamples = 3329\nvalue = [1586, 1743]\nclass = White", fillcolor="#399de517"] ;
8 -> 9 ;
10 [label="gini = 0.4885\nsamples = 35672\nvalue = [15128, 20544]\nclass = White", fillcolor="#399de543"] ;
8 -> 10 ;
}